<?xml version="1.0"?>
<opencv_storage>
<cascade>
  <stageType>BOOST</stageType>
  <featureType>HAAR</featureType>
  <height>24</height>
  <width>24</width>
  <stageParams>
    <boostType>GAB</boostType>
    <minHitRate>9.9500000476837158e-01</minHitRate>
    <maxFalseAlarm>5.0000000000000000e-01</maxFalseAlarm>
    <weightTrimRate>9.4999999999999996e-01</weightTrimRate>
    <maxDepth>1</maxDepth>
    <maxWeakCount>100</maxWeakCount></stageParams>
  <featureParams>
    <maxCatCount>0</maxCatCount>
    <featSize>1</featSize>
    <mode>BASIC</mode></featureParams>
  <stageNum>16</stageNum>
  <stages>
    <!-- stage 0 -->
    <_>
      <maxWeakCount>3</maxWeakCount>
      <stageThreshold>-9.2744284868240356e-01</stageThreshold>
      <weakClassifiers>
        <_>
          <internalNodes>
            0 -1 49 -4.6279191970825195e-02</internalNodes>
          <leafValues>
            8.5869562625885010e-01 -9.1902834177017212e-01</leafValues></_>
        <_>
          <internalNodes>
            0 -1 41 2.5220371782779694e-02</internalNodes>
          <leafValues>
            -7.9149711132049561e-01 7.8862863779067993e-01</leafValues></_>
        <_>
          <internalNodes>
            0 -1 25 3.7841198500245810e-03</internalNodes>
          <leafValues>
            -7.9704314470291138e-01 8.0557435750961304e-01</leafValues></_></weakClassifiers></_>
    <!-- stage 1 -->
    <_>
      <maxWeakCount>2</maxWeakCount>
      <stageThreshold>-3.1795126199722290e-01</stageThreshold>
      <weakClassifiers>
        <_>
          <internalNodes>
            0 -1 51 -2.4509791284799576e-02</internalNodes>
          <leafValues>
            7.9679143428802490e-01 -8.9344263076782227e-01</leafValues></_>
        <_>
          <internalNodes>
            0 -1 48 2.6923993602395058e-02</internalNodes>
          <leafValues>
            -9.2811352014541626e-01 5.7549136877059937e-01</leafValues></_></weakClassifiers></_>
    <!-- stage 2 -->
    <_>
      <maxWeakCount>4</maxWeakCount>
      <stageThreshold>-6.2512409687042236e-01</stageThreshold>
      <weakClassifiers>
        <_>
          <internalNodes>
            0 -1 15 -4.2352505028247833e-02</internalNodes>
          <leafValues>
            7.0491802692413330e-01 -7.9838711023330688e-01</leafValues></_>
        <_>
          <internalNodes>
            0 -1 30 5.2336743101477623e-03</internalNodes>
          <leafValues>
            -8.2923895120620728e-01 4.7181743383407593e-01</leafValues></_>
        <_>
          <internalNodes>
            0 -1 20 -3.4851856529712677e-02</internalNodes>
          <leafValues>
            5.1121586561203003e-01 -7.9555153846740723e-01</leafValues></_>
        <_>
          <internalNodes>
            0 -1 55 -2.3534324020147324e-02</internalNodes>
          <leafValues>
            4.9699708819389343e-01 -8.0130583047866821e-01</leafValues></_></weakClassifiers></_>
    <!-- stage 3 -->
    <_>
      <maxWeakCount>5</maxWeakCount>
      <stageThreshold>-8.6851823329925537e-01</stageThreshold>
      <weakClassifiers>
        <_>
          <internalNodes>
            0 -1 22 -2.9326548799872398e-02</internalNodes>
          <leafValues>
            7.8048777580261230e-01 -7.3782771825790405e-01</leafValues></_>
        <_>
          <internalNodes>
            0 -1 28 -9.7634065896272659e-03</internalNodes>
          <leafValues>
            8.8182657957077026e-01 -4.9562928080558777e-01</leafValues></_>
        <_>
          <internalNodes>
            0 -1 29 -2.7658718172460794e-03</internalNodes>
          <leafValues>
            5.5618852376937866e-01 -7.2775995731353760e-01</leafValues></_>
        <_>
          <internalNodes>
            0 -1 3 3.2724079210311174e-03</internalNodes>
          <leafValues>
            -9.5117187500000000e-01 3.9944055676460266e-01</leafValues></_>
        <_>
          <internalNodes>
            0 -1 38 3.5999999381601810e-03</internalNodes>
          <leafValues>
            -5.9069025516510010e-01 6.9376832246780396e-01</leafValues></_></weakClassifiers></_>
    <!-- stage 4 -->
    <_>
      <maxWeakCount>5</maxWeakCount>
      <stageThreshold>-1.0854705572128296e+00</stageThreshold>
      <weakClassifiers>
        <_>
          <internalNodes>
            0 -1 63 -1.0451197624206543e-02</internalNodes>
          <leafValues>
            7.7070063352584839e-01 -6.9343066215515137e-01</leafValues></_>
        <_>
          <internalNodes>
            0 -1 32 -1.7107866704463959e-02</internalNodes>
          <leafValues>
            4.8749911785125732e-01 -7.1465402841567993e-01</leafValues></_>
        <_>
          <internalNodes>
            0 -1 58 -1.4174593612551689e-02</internalNodes>
          <leafValues>
            4.2865911126136780e-01 -7.6767587661743164e-01</leafValues></_>
        <_>
          <internalNodes>
            0 -1 11 -5.8837812393903732e-03</internalNodes>
          <leafValues>
            6.9954413175582886e-01 -5.0973576307296753e-01</leafValues></_>
        <_>
          <internalNodes>
            0 -1 65 -1.4563566446304321e-01</internalNodes>
          <leafValues>
            -9.7009384632110596e-01 4.0369084477424622e-01</leafValues></_></weakClassifiers></_>
    <!-- stage 5 -->
    <_>
      <maxWeakCount>2</maxWeakCount>
      <stageThreshold>-2.7271950244903564e-01</stageThreshold>
      <weakClassifiers>
        <_>
          <internalNodes>
            0 -1 14 -1.5065646171569824e-01</internalNodes>
          <leafValues>
            8.4536081552505493e-01 -9.8312234878540039e-01</leafValues></_>
        <_>
          <internalNodes>
            0 -1 17 -9.9409356713294983e-02</internalNodes>
          <leafValues>
            7.1040284633636475e-01 -8.4905570745468140e-01</leafValues></_></weakClassifiers></_>
    <!-- stage 6 -->
    <_>
      <maxWeakCount>3</maxWeakCount>
      <stageThreshold>-8.6891496181488037e-01</stageThreshold>
      <weakClassifiers>
        <_>
          <internalNodes>
            0 -1 69 -7.1419790387153625e-02</internalNodes>
          <leafValues>
            -7.8991597890853882e-01 6.1658030748367310e-01</leafValues></_>
        <_>
          <internalNodes>
            0 -1 40 8.1038866192102432e-03</internalNodes>
          <leafValues>
            -4.4918903708457947e-01 8.9030402898788452e-01</leafValues></_>
        <_>
          <internalNodes>
            0 -1 27 -1.1129648238420486e-01</internalNodes>
          <leafValues>
            -9.6930301189422607e-01 3.9094194769859314e-01</leafValues></_></weakClassifiers></_>
    <!-- stage 7 -->
    <_>
      <maxWeakCount>6</maxWeakCount>
      <stageThreshold>-7.2869861125946045e-01</stageThreshold>
      <weakClassifiers>
        <_>
          <internalNodes>
            0 -1 12 -5.9456257149577141e-03</internalNodes>
          <leafValues>
            7.4324321746826172e-01 -6.3250881433486938e-01</leafValues></_>
        <_>
          <internalNodes>
            0 -1 8 1.5542864799499512e-02</internalNodes>
          <leafValues>
            -3.1629785895347595e-01 8.7168806791305542e-01</leafValues></_>
        <_>
          <internalNodes>
            0 -1 37 -4.7174356877803802e-03</internalNodes>
          <leafValues>
            3.1048956513404846e-01 -8.5652738809585571e-01</leafValues></_>
        <_>
          <internalNodes>
            0 -1 26 -1.5898734563961625e-03</internalNodes>
          <leafValues>
            6.9897580146789551e-01 -4.5343092083930969e-01</leafValues></_>
        <_>
          <internalNodes>
            0 -1 76 -6.3813701272010803e-03</internalNodes>
          <leafValues>
            -3.2157671451568604e-01 7.4287939071655273e-01</leafValues></_>
        <_>
          <internalNodes>
            0 -1 68 -6.7790653556585312e-03</internalNodes>
          <leafValues>
            7.0965808629989624e-01 -3.7982997298240662e-01</leafValues></_></weakClassifiers></_>
    <!-- stage 8 -->
    <_>
      <maxWeakCount>7</maxWeakCount>
      <stageThreshold>-1.3634557723999023e+00</stageThreshold>
      <weakClassifiers>
        <_>
          <internalNodes>
            0 -1 43 -3.4419842064380646e-02</internalNodes>
          <leafValues>
            8.1818181276321411e-01 -5.9197324514389038e-01</leafValues></_>
        <_>
          <internalNodes>
            0 -1 66 -5.1631601527333260e-03</internalNodes>
          <leafValues>
            5.9073090553283691e-01 -4.6982830762863159e-01</leafValues></_>
        <_>
          <internalNodes>
            0 -1 45 9.1874720528721809e-03</internalNodes>
          <leafValues>
            2.7955693006515503e-01 -9.1748696565628052e-01</leafValues></_>
        <_>
          <internalNodes>
            0 -1 35 -3.8063772954046726e-03</internalNodes>
          <leafValues>
            -8.4879380464553833e-01 3.0405098199844360e-01</leafValues></_>
        <_>
          <internalNodes>
            0 -1 0 1.2443523854017258e-02</internalNodes>
          <leafValues>
            -4.0362778306007385e-01 7.2779273986816406e-01</leafValues></_>
        <_>
          <internalNodes>
            0 -1 7 8.0062303459271789e-04</internalNodes>
          <leafValues>
            3.2920151948928833e-01 -7.3620939254760742e-01</leafValues></_>
        <_>
          <internalNodes>
            0 -1 42 -2.7330648154020309e-03</internalNodes>
          <leafValues>
            3.4200894832611084e-01 -7.1303582191467285e-01</leafValues></_></weakClassifiers></_>
    <!-- stage 9 -->
    <_>
      <maxWeakCount>6</maxWeakCount>
      <stageThreshold>-1.0250161886215210e+00</stageThreshold>
      <weakClassifiers>
        <_>
          <internalNodes>
            0 -1 10 -5.1700796931982040e-02</internalNodes>
          <leafValues>
            7.0512819290161133e-01 -6.5090906620025635e-01</leafValues></_>
        <_>
          <internalNodes>
            0 -1 50 -6.2747344374656677e-02</internalNodes>
          <leafValues>
            5.1034981012344360e-01 -5.3990805149078369e-01</leafValues></_>
        <_>
          <internalNodes>
            0 -1 59 -9.0028271079063416e-03</internalNodes>
          <leafValues>
            -8.9884662628173828e-01 2.5557422637939453e-01</leafValues></_>
        <_>
          <internalNodes>
            0 -1 46 3.9487567846663296e-04</internalNodes>
          <leafValues>
            2.5215530395507813e-01 -8.0016189813613892e-01</leafValues></_>
        <_>
          <internalNodes>
            0 -1 57 -2.9220692813396454e-03</internalNodes>
          <leafValues>
            4.7977101802825928e-01 -5.1076102256774902e-01</leafValues></_>
        <_>
          <internalNodes>
            0 -1 6 6.6975376103073359e-04</internalNodes>
          <leafValues>
            2.7299544215202332e-01 -9.5550161600112915e-01</leafValues></_></weakClassifiers></_>
    <!-- stage 10 -->
    <_>
      <maxWeakCount>7</maxWeakCount>
      <stageThreshold>-1.8443233966827393e+00</stageThreshold>
      <weakClassifiers>
        <_>
          <internalNodes>
            0 -1 64 -2.2981716319918633e-02</internalNodes>
          <leafValues>
            5.8011049032211304e-01 -6.9599997997283936e-01</leafValues></_>
        <_>
          <internalNodes>
            0 -1 34 5.2731423638761044e-03</internalNodes>
          <leafValues>
            -5.6693321466445923e-01 5.0901091098785400e-01</leafValues></_>
        <_>
          <internalNodes>
            0 -1 6 -5.9631303884088993e-04</internalNodes>
          <leafValues>
            -8.6852705478668213e-01 2.8620478510856628e-01</leafValues></_>
        <_>
          <internalNodes>
            0 -1 44 -2.4449836462736130e-02</internalNodes>
          <leafValues>
            -8.8549607992172241e-01 3.1669378280639648e-01</leafValues></_>
        <_>
          <internalNodes>
            0 -1 1 8.1143490970134735e-03</internalNodes>
          <leafValues>
            -4.2655643820762634e-01 6.0844099521636963e-01</leafValues></_>
        <_>
          <internalNodes>
            0 -1 71 -4.0164012461900711e-03</internalNodes>
          <leafValues>
            1.9133956730365753e-01 -1.</leafValues></_>
        <_>
          <internalNodes>
            0 -1 5 -2.3340806365013123e-03</internalNodes>
          <leafValues>
            -9.7005999088287354e-01 2.0565991103649139e-01</leafValues></_></weakClassifiers></_>
    <!-- stage 11 -->
    <_>
      <maxWeakCount>5</maxWeakCount>
      <stageThreshold>-5.0999706983566284e-01</stageThreshold>
      <weakClassifiers>
        <_>
          <internalNodes>
            0 -1 13 -1.3427264988422394e-02</internalNodes>
          <leafValues>
            6.4473682641983032e-01 -5.9856629371643066e-01</leafValues></_>
        <_>
          <internalNodes>
            0 -1 23 -7.0543251931667328e-03</internalNodes>
          <leafValues>
            6.8138086795806885e-01 -4.3717059493064880e-01</leafValues></_>
        <_>
          <internalNodes>
            0 -1 16 5.5601190775632858e-02</internalNodes>
          <leafValues>
            2.7444377541542053e-01 -9.5863920450210571e-01</leafValues></_>
        <_>
          <internalNodes>
            0 -1 19 4.9590640701353550e-03</internalNodes>
          <leafValues>
            -9.9078023433685303e-01 1.8347297608852386e-01</leafValues></_>
        <_>
          <internalNodes>
            0 -1 36 7.7897543087601662e-04</internalNodes>
          <leafValues>
            1.8235464394092560e-01 -9.4322645664215088e-01</leafValues></_></weakClassifiers></_>
    <!-- stage 12 -->
    <_>
      <maxWeakCount>6</maxWeakCount>
      <stageThreshold>-7.4705272912979126e-01</stageThreshold>
      <weakClassifiers>
        <_>
          <internalNodes>
            0 -1 39 1.2241723015904427e-02</internalNodes>
          <leafValues>
            -6.0142350196838379e-01 6.6666668653488159e-01</leafValues></_>
        <_>
          <internalNodes>
            0 -1 60 9.0189184993505478e-03</internalNodes>
          <leafValues>
            -6.1428463459014893e-01 4.4877573847770691e-01</leafValues></_>
        <_>
          <internalNodes>
            0 -1 47 -1.7459578812122345e-03</internalNodes>
          <leafValues>
            2.5719216465950012e-01 -8.0308461189270020e-01</leafValues></_>
        <_>
          <internalNodes>
            0 -1 56 -4.0220366790890694e-03</internalNodes>
          <leafValues>
            -1. 2.0183998346328735e-01</leafValues></_>
        <_>
          <internalNodes>
            0 -1 2 1.1428585276007652e-02</internalNodes>
          <leafValues>
            -3.2536128163337708e-01 8.1859755516052246e-01</leafValues></_>
        <_>
          <internalNodes>
            0 -1 62 -2.7357903309166431e-04</internalNodes>
          <leafValues>
            -6.5328449010848999e-01 3.3498454093933105e-01</leafValues></_></weakClassifiers></_>
    <!-- stage 13 -->
    <_>
      <maxWeakCount>5</maxWeakCount>
      <stageThreshold>-9.3700087070465088e-01</stageThreshold>
      <weakClassifiers>
        <_>
          <internalNodes>
            0 -1 67 -4.3705530464649200e-02</internalNodes>
          <leafValues>
            7.3426574468612671e-01 -6.0416668653488159e-01</leafValues></_>
        <_>
          <internalNodes>
            0 -1 18 -2.3853734135627747e-02</internalNodes>
          <leafValues>
            3.5265019536018372e-01 -6.7803090810775757e-01</leafValues></_>
        <_>
          <internalNodes>
            0 -1 53 -1.1249225586652756e-02</internalNodes>
          <leafValues>
            7.0295453071594238e-01 -3.3653071522712708e-01</leafValues></_>
        <_>
          <internalNodes>
            0 -1 33 1.5152744017541409e-03</internalNodes>
          <leafValues>
            -5.5764567852020264e-01 3.8154280185699463e-01</leafValues></_>
        <_>
          <internalNodes>
            0 -1 52 6.1631062999367714e-04</internalNodes>
          <leafValues>
            -7.3049652576446533e-01 4.3518173694610596e-01</leafValues></_></weakClassifiers></_>
    <!-- stage 14 -->
    <_>
      <maxWeakCount>7</maxWeakCount>
      <stageThreshold>-9.5457118749618530e-01</stageThreshold>
      <weakClassifiers>
        <_>
          <internalNodes>
            0 -1 24 3.9634626358747482e-02</internalNodes>
          <leafValues>
            -5.3548389673233032e-01 8.0165290832519531e-01</leafValues></_>
        <_>
          <internalNodes>
            0 -1 73 -9.7517203539609909e-03</internalNodes>
          <leafValues>
            6.2308037281036377e-01 -3.9113724231719971e-01</leafValues></_>
        <_>
          <internalNodes>
            0 -1 31 8.7483935058116913e-03</internalNodes>
          <leafValues>
            -5.4622662067413330e-01 3.9673593640327454e-01</leafValues></_>
        <_>
          <internalNodes>
            0 -1 9 9.8518589511513710e-03</internalNodes>
          <leafValues>
            -4.2735099792480469e-01 4.4444620609283447e-01</leafValues></_>
        <_>
          <internalNodes>
            0 -1 75 -6.8565562833100557e-04</internalNodes>
          <leafValues>
            -6.3459312915802002e-01 3.2753747701644897e-01</leafValues></_>
        <_>
          <internalNodes>
            0 -1 4 6.1719666700810194e-04</internalNodes>
          <leafValues>
            2.4718777835369110e-01 -8.5522472858428955e-01</leafValues></_>
        <_>
          <internalNodes>
            0 -1 72 2.4436184321530163e-04</internalNodes>
          <leafValues>
            -4.6370494365692139e-01 4.6123570203781128e-01</leafValues></_></weakClassifiers></_>
    <!-- stage 15 -->
    <_>
      <maxWeakCount>6</maxWeakCount>
      <stageThreshold>-1.3912079334259033e+00</stageThreshold>
      <weakClassifiers>
        <_>
          <internalNodes>
            0 -1 70 2.8532709926366806e-02</internalNodes>
          <leafValues>
            -5.4576271772384644e-01 6.7647057771682739e-01</leafValues></_>
        <_>
          <internalNodes>
            0 -1 74 -1.4712842181324959e-02</internalNodes>
          <leafValues>
            7.9836887121200562e-01 -2.9256135225296021e-01</leafValues></_>
        <_>
          <internalNodes>
            0 -1 21 -4.1125684976577759e-02</internalNodes>
          <leafValues>
            2.8858748078346252e-01 -7.8844267129898071e-01</leafValues></_>
        <_>
          <internalNodes>
            0 -1 40 6.1054108664393425e-03</internalNodes>
          <leafValues>
            -4.3345156311988831e-01 5.1985025405883789e-01</leafValues></_>
        <_>
          <internalNodes>
            0 -1 54 -8.9027304202318192e-03</internalNodes>
          <leafValues>
            3.6253190040588379e-01 -6.4780527353286743e-01</leafValues></_>
        <_>
          <internalNodes>
            0 -1 61 1.6269311308860779e-03</internalNodes>
          <leafValues>
            2.3978552222251892e-01 -8.8096618652343750e-01</leafValues></_></weakClassifiers></_></stages>
  <features>
    <_>
      <rects>
        <_>
          0 0 2 20 -1.</_>
        <_>
          1 0 1 20 2.</_></rects>
      <tilted>0</tilted></_>
    <_>
      <rects>
        <_>
          0 0 10 2 -1.</_>
        <_>
          0 1 10 1 2.</_></rects>
      <tilted>0</tilted></_>
    <_>
      <rects>
        <_>
          0 2 2 9 -1.</_>
        <_>
          1 2 1 9 2.</_></rects>
      <tilted>0</tilted></_>
    <_>
      <rects>
        <_>
          0 6 14 16 -1.</_>
        <_>
          0 6 7 8 2.</_>
        <_>
          7 14 7 8 2.</_></rects>
      <tilted>0</tilted></_>
    <_>
      <rects>
        <_>
          0 16 2 2 -1.</_>
        <_>
          0 17 2 1 2.</_></rects>
      <tilted>0</tilted></_>
    <_>
      <rects>
        <_>
          1 6 16 16 -1.</_>
        <_>
          1 6 8 8 2.</_>
        <_>
          9 14 8 8 2.</_></rects>
      <tilted>0</tilted></_>
    <_>
      <rects>
        <_>
          1 9 1 2 -1.</_>
        <_>
          1 10 1 1 2.</_></rects>
      <tilted>0</tilted></_>
    <_>
      <rects>
        <_>
          1 17 1 6 -1.</_>
        <_>
          1 20 1 3 2.</_></rects>
      <tilted>0</tilted></_>
    <_>
      <rects>
        <_>
          2 0 12 2 -1.</_>
        <_>
          2 1 12 1 2.</_></rects>
      <tilted>0</tilted></_>
    <_>
      <rects>
        <_>
          2 0 18 2 -1.</_>
        <_>
          2 1 18 1 2.</_></rects>
      <tilted>0</tilted></_>
    <_>
      <rects>
        <_>
          2 2 11 6 -1.</_>
        <_>
          2 5 11 3 2.</_></rects>
      <tilted>0</tilted></_>
    <_>
      <rects>
        <_>
          2 3 2 10 -1.</_>
        <_>
          3 3 1 10 2.</_></rects>
      <tilted>0</tilted></_>
    <_>
      <rects>
        <_>
          2 4 2 5 -1.</_>
        <_>
          3 4 1 5 2.</_></rects>
      <tilted>0</tilted></_>
    <_>
      <rects>
        <_>
          2 4 2 17 -1.</_>
        <_>
          3 4 1 17 2.</_></rects>
      <tilted>0</tilted></_>
    <_>
      <rects>
        <_>
          2 4 11 6 -1.</_>
        <_>
          2 6 11 2 2.</_></rects>
      <tilted>0</tilted></_>
    <_>
      <rects>
        <_>
          2 6 14 8 -1.</_>
        <_>
          2 6 7 4 2.</_>
        <_>
          9 10 7 4 2.</_></rects>
      <tilted>0</tilted></_>
    <_>
      <rects>
        <_>
          2 6 18 14 -1.</_>
        <_>
          2 6 9 7 2.</_>
        <_>
          11 13 9 7 2.</_></rects>
      <tilted>0</tilted></_>
    <_>
      <rects>
        <_>
          3 1 9 4 -1.</_>
        <_>
          6 1 3 4 2.</_></rects>
      <tilted>0</tilted></_>
    <_>
      <rects>
        <_>
          3 7 12 6 -1.</_>
        <_>
          3 7 6 3 2.</_>
        <_>
          9 10 6 3 2.</_></rects>
      <tilted>0</tilted></_>
    <_>
      <rects>
        <_>
          3 8 14 14 -1.</_>
        <_>
          3 8 7 7 2.</_>
        <_>
          10 15 7 7 2.</_></rects>
      <tilted>0</tilted></_>
    <_>
      <rects>
        <_>
          3 9 7 14 -1.</_>
        <_>
          3 16 7 7 2.</_></rects>
      <tilted>0</tilted></_>
    <_>
      <rects>
        <_>
          3 9 18 14 -1.</_>
        <_>
          3 16 18 7 2.</_></rects>
      <tilted>0</tilted></_>
    <_>
      <rects>
        <_>
          3 13 18 4 -1.</_>
        <_>
          3 15 18 2 2.</_></rects>
      <tilted>0</tilted></_>
    <_>
      <rects>
        <_>
          3 15 9 2 -1.</_>
        <_>
          3 16 9 1 2.</_></rects>
      <tilted>0</tilted></_>
    <_>
      <rects>
        <_>
          3 16 11 6 -1.</_>
        <_>
          3 19 11 3 2.</_></rects>
      <tilted>0</tilted></_>
    <_>
      <rects>
        <_>
          4 7 3 4 -1.</_>
        <_>
          4 9 3 2 2.</_></rects>
      <tilted>0</tilted></_>
    <_>
      <rects>
        <_>
          4 11 2 2 -1.</_>
        <_>
          5 11 1 2 2.</_></rects>
      <tilted>0</tilted></_>
    <_>
      <rects>
        <_>
          4 17 18 2 -1.</_>
        <_>
          10 17 6 2 2.</_></rects>
      <tilted>0</tilted></_>
    <_>
      <rects>
        <_>
          4 22 18 2 -1.</_>
        <_>
          4 23 18 1 2.</_></rects>
      <tilted>0</tilted></_>
    <_>
      <rects>
        <_>
          5 1 1 8 -1.</_>
        <_>
          5 5 1 4 2.</_></rects>
      <tilted>0</tilted></_>
    <_>
      <rects>
        <_>
          5 3 4 16 -1.</_>
        <_>
          7 3 2 16 2.</_></rects>
      <tilted>0</tilted></_>
    <_>
      <rects>
        <_>
          5 5 4 10 -1.</_>
        <_>
          7 5 2 10 2.</_></rects>
      <tilted>0</tilted></_>
    <_>
      <rects>
        <_>
          5 6 10 6 -1.</_>
        <_>
          5 6 5 3 2.</_>
        <_>
          10 9 5 3 2.</_></rects>
      <tilted>0</tilted></_>
    <_>
      <rects>
        <_>
          5 6 9 4 -1.</_>
        <_>
          5 8 9 2 2.</_></rects>
      <tilted>0</tilted></_>
    <_>
      <rects>
        <_>
          6 7 4 2 -1.</_>
        <_>
          8 7 2 2 2.</_></rects>
      <tilted>0</tilted></_>
    <_>
      <rects>
        <_>
          6 10 6 4 -1.</_>
        <_>
          6 10 3 2 2.</_>
        <_>
          9 12 3 2 2.</_></rects>
      <tilted>0</tilted></_>
    <_>
      <rects>
        <_>
          7 2 2 1 -1.</_>
        <_>
          8 2 1 1 2.</_></rects>
      <tilted>0</tilted></_>
    <_>
      <rects>
        <_>
          7 2 4 14 -1.</_>
        <_>
          7 2 2 7 2.</_>
        <_>
          9 9 2 7 2.</_></rects>
      <tilted>0</tilted></_>
    <_>
      <rects>
        <_>
          7 4 2 6 -1.</_>
        <_>
          8 4 1 6 2.</_></rects>
      <tilted>0</tilted></_>
    <_>
      <rects>
        <_>
          7 4 2 17 -1.</_>
        <_>
          8 4 1 17 2.</_></rects>
      <tilted>0</tilted></_>
    <_>
      <rects>
        <_>
          7 5 2 4 -1.</_>
        <_>
          8 5 1 4 2.</_></rects>
      <tilted>0</tilted></_>
    <_>
      <rects>
        <_>
          7 9 6 14 -1.</_>
        <_>
          7 9 3 7 2.</_>
        <_>
          10 16 3 7 2.</_></rects>
      <tilted>0</tilted></_>
    <_>
      <rects>
        <_>
          7 15 15 4 -1.</_>
        <_>
          7 17 15 2 2.</_></rects>
      <tilted>0</tilted></_>
    <_>
      <rects>
        <_>
          8 4 4 17 -1.</_>
        <_>
          10 4 2 17 2.</_></rects>
      <tilted>0</tilted></_>
    <_>
      <rects>
        <_>
          8 6 8 14 -1.</_>
        <_>
          8 6 4 7 2.</_>
        <_>
          12 13 4 7 2.</_></rects>
      <tilted>0</tilted></_>
    <_>
      <rects>
        <_>
          8 9 7 6 -1.</_>
        <_>
          8 12 7 3 2.</_></rects>
      <tilted>0</tilted></_>
    <_>
      <rects>
        <_>
          9 2 2 1 -1.</_>
        <_>
          10 2 1 1 2.</_></rects>
      <tilted>0</tilted></_>
    <_>
      <rects>
        <_>
          9 2 2 10 -1.</_>
        <_>
          9 7 2 5 2.</_></rects>
      <tilted>0</tilted></_>
    <_>
      <rects>
        <_>
          9 2 10 12 -1.</_>
        <_>
          9 2 5 6 2.</_>
        <_>
          14 8 5 6 2.</_></rects>
      <tilted>0</tilted></_>
    <_>
      <rects>
        <_>
          10 9 10 12 -1.</_>
        <_>
          10 9 5 6 2.</_>
        <_>
          15 15 5 6 2.</_></rects>
      <tilted>0</tilted></_>
    <_>
      <rects>
        <_>
          10 10 10 10 -1.</_>
        <_>
          10 10 5 5 2.</_>
        <_>
          15 15 5 5 2.</_></rects>
      <tilted>0</tilted></_>
    <_>
      <rects>
        <_>
          10 12 10 6 -1.</_>
        <_>
          10 12 5 3 2.</_>
        <_>
          15 15 5 3 2.</_></rects>
      <tilted>0</tilted></_>
    <_>
      <rects>
        <_>
          10 13 6 1 -1.</_>
        <_>
          13 13 3 1 2.</_></rects>
      <tilted>0</tilted></_>
    <_>
      <rects>
        <_>
          10 22 10 2 -1.</_>
        <_>
          10 23 10 1 2.</_></rects>
      <tilted>0</tilted></_>
    <_>
      <rects>
        <_>
          11 3 2 10 -1.</_>
        <_>
          11 8 2 5 2.</_></rects>
      <tilted>0</tilted></_>
    <_>
      <rects>
        <_>
          11 10 6 12 -1.</_>
        <_>
          11 10 3 6 2.</_>
        <_>
          14 16 3 6 2.</_></rects>
      <tilted>0</tilted></_>
    <_>
      <rects>
        <_>
          11 12 4 4 -1.</_>
        <_>
          11 12 2 2 2.</_>
        <_>
          13 14 2 2 2.</_></rects>
      <tilted>0</tilted></_>
    <_>
      <rects>
        <_>
          11 22 6 2 -1.</_>
        <_>
          11 23 6 1 2.</_></rects>
      <tilted>0</tilted></_>
    <_>
      <rects>
        <_>
          12 14 8 9 -1.</_>
        <_>
          16 14 4 9 2.</_></rects>
      <tilted>0</tilted></_>
    <_>
      <rects>
        <_>
          12 16 4 6 -1.</_>
        <_>
          12 19 4 3 2.</_></rects>
      <tilted>0</tilted></_>
    <_>
      <rects>
        <_>
          13 16 6 8 -1.</_>
        <_>
          13 16 3 4 2.</_>
        <_>
          16 20 3 4 2.</_></rects>
      <tilted>0</tilted></_>
    <_>
      <rects>
        <_>
          13 18 4 5 -1.</_>
        <_>
          15 18 2 5 2.</_></rects>
      <tilted>0</tilted></_>
    <_>
      <rects>
        <_>
          13 20 2 1 -1.</_>
        <_>
          14 20 1 1 2.</_></rects>
      <tilted>0</tilted></_>
    <_>
      <rects>
        <_>
          14 5 4 4 -1.</_>
        <_>
          16 5 2 4 2.</_></rects>
      <tilted>0</tilted></_>
    <_>
      <rects>
        <_>
          14 5 4 15 -1.</_>
        <_>
          16 5 2 15 2.</_></rects>
      <tilted>0</tilted></_>
    <_>
      <rects>
        <_>
          15 5 3 15 -1.</_>
        <_>
          15 10 3 5 2.</_></rects>
      <tilted>0</tilted></_>
    <_>
      <rects>
        <_>
          15 8 2 11 -1.</_>
        <_>
          16 8 1 11 2.</_></rects>
      <tilted>0</tilted></_>
    <_>
      <rects>
        <_>
          15 12 6 6 -1.</_>
        <_>
          15 15 6 3 2.</_></rects>
      <tilted>0</tilted></_>
    <_>
      <rects>
        <_>
          16 0 1 8 -1.</_>
        <_>
          16 4 1 4 2.</_></rects>
      <tilted>0</tilted></_>
    <_>
      <rects>
        <_>
          16 5 2 15 -1.</_>
        <_>
          16 10 2 5 2.</_></rects>
      <tilted>0</tilted></_>
    <_>
      <rects>
        <_>
          16 6 5 6 -1.</_>
        <_>
          16 9 5 3 2.</_></rects>
      <tilted>0</tilted></_>
    <_>
      <rects>
        <_>
          16 7 2 16 -1.</_>
        <_>
          16 15 2 8 2.</_></rects>
      <tilted>0</tilted></_>
    <_>
      <rects>
        <_>
          16 11 2 6 -1.</_>
        <_>
          16 11 1 3 2.</_>
        <_>
          17 14 1 3 2.</_></rects>
      <tilted>0</tilted></_>
    <_>
      <rects>
        <_>
          22 0 2 24 -1.</_>
        <_>
          23 0 1 24 2.</_></rects>
      <tilted>0</tilted></_>
    <_>
      <rects>
        <_>
          22 3 2 19 -1.</_>
        <_>
          23 3 1 19 2.</_></rects>
      <tilted>0</tilted></_>
    <_>
      <rects>
        <_>
          23 0 1 4 -1.</_>
        <_>
          23 2 1 2 2.</_></rects>
      <tilted>0</tilted></_>
    <_>
      <rects>
        <_>
          23 21 1 3 -1.</_>
        <_>
          23 22 1 1 2.</_></rects>
      <tilted>0</tilted></_></features></cascade>
</opencv_storage>
