<?xml version="1.0"?>
<opencv_storage>
<stage10>
  <maxWeakCount>7</maxWeakCount>
  <stageThreshold>-1.8443233966827393e+00</stageThreshold>
  <weakClassifiers>
    <_>
      <internalNodes>
        0 -1 135910 -2.2981716319918633e-02</internalNodes>
      <leafValues>
        5.8011049032211304e-01 -6.9599997997283936e-01</leafValues></_>
    <_>
      <internalNodes>
        0 -1 75771 5.2731423638761044e-03</internalNodes>
      <leafValues>
        -5.6693321466445923e-01 5.0901091098785400e-01</leafValues></_>
    <_>
      <internalNodes>
        0 -1 20936 -5.9631303884088993e-04</internalNodes>
      <leafValues>
        -8.6852705478668213e-01 2.8620478510856628e-01</leafValues></_>
    <_>
      <internalNodes>
        0 -1 93882 -2.4449836462736130e-02</internalNodes>
      <leafValues>
        -8.8549607992172241e-01 3.1669378280639648e-01</leafValues></_>
    <_>
      <internalNodes>
        0 -1 697 8.1143490970134735e-03</internalNodes>
      <leafValues>
        -4.2655643820762634e-01 6.0844099521636963e-01</leafValues></_>
    <_>
      <internalNodes>
        0 -1 146247 -4.0164012461900711e-03</internalNodes>
      <leafValues>
        1.9133956730365753e-01 -1.</leafValues></_>
    <_>
      <internalNodes>
        0 -1 19248 -2.3340806365013123e-03</internalNodes>
      <leafValues>
        -9.7005999088287354e-01 2.0565991103649139e-01</leafValues></_></weakClassifiers></stage10>
</opencv_storage>
