<?xml version="1.0"?>
<opencv_storage>
<stage7>
  <maxWeakCount>6</maxWeakCount>
  <stageThreshold>-7.2869861125946045e-01</stageThreshold>
  <weakClassifiers>
    <_>
      <internalNodes>
        0 -1 29534 -5.9456257149577141e-03</internalNodes>
      <leafValues>
        7.4324321746826172e-01 -6.3250881433486938e-01</leafValues></_>
    <_>
      <internalNodes>
        0 -1 26588 1.5542864799499512e-02</internalNodes>
      <leafValues>
        -3.1629785895347595e-01 8.7168806791305542e-01</leafValues></_>
    <_>
      <internalNodes>
        0 -1 82308 -4.7174356877803802e-03</internalNodes>
      <leafValues>
        3.1048956513404846e-01 -8.5652738809585571e-01</leafValues></_>
    <_>
      <internalNodes>
        0 -1 57205 -1.5898734563961625e-03</internalNodes>
      <leafValues>
        6.9897580146789551e-01 -4.5343092083930969e-01</leafValues></_>
    <_>
      <internalNodes>
        0 -1 162334 -6.3813701272010803e-03</internalNodes>
      <leafValues>
        -3.2157671451568604e-01 7.4287939071655273e-01</leafValues></_>
    <_>
      <internalNodes>
        0 -1 144052 -6.7790653556585312e-03</internalNodes>
      <leafValues>
        7.0965808629989624e-01 -3.7982997298240662e-01</leafValues></_></weakClassifiers></stage7>
</opencv_storage>
